#pragma once
#include <cstdarg>
namespace Eloquent {
    namespace ML {
        namespace Port {
            class RandomForest {
                public:
                    /**
                    * Predict class for features vector
                    */
                    int predict(float *x) {
                        uint8_t votes[3] = { 0 };
                        // tree #1
                        if (x[1] <= -4.005000114440918) {
                            if (x[3] <= -8.540000438690186) {
                                votes[0] += 1;
                            }

                            else {
                                if (x[3] <= -2.5149999856948853) {
                                    if (x[0] <= 0.7949999868869781) {
                                        if (x[4] <= -0.3999999910593033) {
                                            votes[0] += 1;
                                        }

                                        else {
                                            if (x[4] <= 2.6949999928474426) {
                                                votes[2] += 1;
                                            }

                                            else {
                                                votes[1] += 1;
                                            }
                                        }
                                    }

                                    else {
                                        if (x[1] <= -4.9599997997283936) {
                                            if (x[5] <= -10.289999961853027) {
                                                votes[0] += 1;
                                            }

                                            else {
                                                if (x[5] <= -9.595000267028809) {
                                                    if (x[4] <= -0.8900000154972076) {
                                                        votes[0] += 1;
                                                    }

                                                    else {
                                                        votes[1] += 1;
                                                    }
                                                }

                                                else {
                                                    if (x[5] <= -9.515000343322754) {
                                                        if (x[2] <= -0.7300000190734863) {
                                                            votes[1] += 1;
                                                        }

                                                        else {
                                                            votes[0] += 1;
                                                        }
                                                    }

                                                    else {
                                                        votes[1] += 1;
                                                    }
                                                }
                                            }
                                        }

                                        else {
                                            if (x[2] <= -17.260000228881836) {
                                                if (x[4] <= 1.565000008791685) {
                                                    votes[0] += 1;
                                                }

                                                else {
                                                    votes[1] += 1;
                                                }
                                            }

                                            else {
                                                if (x[5] <= -9.25) {
                                                    votes[0] += 1;
                                                }

                                                else {
                                                    if (x[0] <= 1.2850000262260437) {
                                                        votes[0] += 1;
                                                    }

                                                    else {
                                                        if (x[5] <= -9.074999809265137) {
                                                            if (x[2] <= 4.144999831914902) {
                                                                votes[1] += 1;
                                                            }

                                                            else {
                                                                votes[0] += 1;
                                                            }
                                                        }

                                                        else {
                                                            votes[1] += 1;
                                                        }
                                                    }
                                                }
                                            }
                                        }
                                    }
                                }

                                else {
                                    if (x[3] <= 2.634999990463257) {
                                        if (x[5] <= -8.819999694824219) {
                                            if (x[5] <= -11.634999752044678) {
                                                if (x[0] <= 0.2850000858306885) {
                                                    votes[2] += 1;
                                                }

                                                else {
                                                    votes[0] += 1;
                                                }
                                            }

                                            else {
                                                votes[2] += 1;
                                            }
                                        }

                                        else {
                                            if (x[2] <= 1.1549999713897705) {
                                                if (x[4] <= 5.950000047683716) {
                                                    if (x[1] <= -4.085000038146973) {
                                                        if (x[1] <= -4.275000095367432) {
                                                            if (x[0] <= 2.875) {
                                                                votes[1] += 1;
                                                            }

                                                            else {
                                                                votes[1] += 1;
                                                            }
                                                        }

                                                        else {
                                                            if (x[5] <= -8.269999980926514) {
                                                                votes[1] += 1;
                                                            }

                                                            else {
                                                                votes[1] += 1;
                                                            }
                                                        }
                                                    }

                                                    else {
                                                        if (x[3] <= 0.550000011920929) {
                                                            votes[1] += 1;
                                                        }

                                                        else {
                                                            votes[2] += 1;
                                                        }
                                                    }
                                                }

                                                else {
                                                    votes[2] += 1;
                                                }
                                            }

                                            else {
                                                if (x[2] <= 2.4550000429153442) {
                                                    if (x[5] <= -8.355000019073486) {
                                                        votes[1] += 1;
                                                    }

                                                    else {
                                                        votes[2] += 1;
                                                    }
                                                }

                                                else {
                                                    votes[2] += 1;
                                                }
                                            }
                                        }
                                    }

                                    else {
                                        if (x[4] <= 0.8650000393390656) {
                                            if (x[2] <= 8.990000009536743) {
                                                votes[1] += 1;
                                            }

                                            else {
                                                votes[2] += 1;
                                            }
                                        }

                                        else {
                                            if (x[5] <= -6.644999980926514) {
                                                votes[0] += 1;
                                            }

                                            else {
                                                votes[2] += 1;
                                            }
                                        }
                                    }
                                }
                            }
                        }

                        else {
                            if (x[2] <= 0.2849999964237213) {
                                if (x[3] <= -1.2200000286102295) {
                                    if (x[0] <= 2.034999966621399) {
                                        if (x[5] <= -6.974999904632568) {
                                            votes[0] += 1;
                                        }

                                        else {
                                            votes[2] += 1;
                                        }
                                    }

                                    else {
                                        if (x[5] <= -9.21999979019165) {
                                            votes[0] += 1;
                                        }

                                        else {
                                            if (x[5] <= -5.960000038146973) {
                                                votes[1] += 1;
                                            }

                                            else {
                                                votes[2] += 1;
                                            }
                                        }
                                    }
                                }

                                else {
                                    if (x[3] <= 2.5) {
                                        if (x[1] <= 0.9900000095367432) {
                                            if (x[3] <= 0.024999999441206455) {
                                                if (x[4] <= 1.0950000286102295) {
                                                    if (x[4] <= 0.7800000011920929) {
                                                        if (x[2] <= -18.18000030517578) {
                                                            votes[0] += 1;
                                                        }

                                                        else {
                                                            if (x[1] <= -1.1949999630451202) {
                                                                votes[2] += 1;
                                                            }

                                                            else {
                                                                votes[1] += 1;
                                                            }
                                                        }
                                                    }

                                                    else {
                                                        votes[2] += 1;
                                                    }
                                                }

                                                else {
                                                    if (x[0] <= 0.9600000083446503) {
                                                        votes[2] += 1;
                                                    }

                                                    else {
                                                        if (x[4] <= 3.990000009536743) {
                                                            votes[0] += 1;
                                                        }

                                                        else {
                                                            votes[2] += 1;
                                                        }
                                                    }
                                                }
                                            }

                                            else {
                                                if (x[4] <= 1.024999976158142) {
                                                    if (x[2] <= -19.234999656677246) {
                                                        votes[0] += 1;
                                                    }

                                                    else {
                                                        if (x[5] <= -7.859999895095825) {
                                                            if (x[4] <= 0.6949999928474426) {
                                                                votes[2] += 1;
                                                            }

                                                            else {
                                                                votes[2] += 1;
                                                            }
                                                        }

                                                        else {
                                                            votes[1] += 1;
                                                        }
                                                    }
                                                }

                                                else {
                                                    if (x[0] <= 2.840000033378601) {
                                                        if (x[4] <= 1.284999966621399) {
                                                            if (x[1] <= 0.26999999582767487) {
                                                                votes[2] += 1;
                                                            }

                                                            else {
                                                                votes[0] += 1;
                                                            }
                                                        }

                                                        else {
                                                            if (x[5] <= -6.944999933242798) {
                                                                votes[0] += 1;
                                                            }

                                                            else {
                                                                votes[2] += 1;
                                                            }
                                                        }
                                                    }

                                                    else {
                                                        if (x[3] <= 0.6649999916553497) {
                                                            votes[2] += 1;
                                                        }

                                                        else {
                                                            votes[1] += 1;
                                                        }
                                                    }
                                                }
                                            }
                                        }

                                        else {
                                            if (x[3] <= -1.1299999952316284) {
                                                if (x[5] <= -6.809999942779541) {
                                                    votes[0] += 1;
                                                }

                                                else {
                                                    votes[2] += 1;
                                                }
                                            }

                                            else {
                                                if (x[1] <= 3.3399999141693115) {
                                                    if (x[0] <= 1.2699999809265137) {
                                                        if (x[2] <= -19.630000114440918) {
                                                            if (x[0] <= -2.5899999737739563) {
                                                                votes[2] += 1;
                                                            }

                                                            else {
                                                                votes[0] += 1;
                                                            }
                                                        }

                                                        else {
                                                            if (x[0] <= 1.1899999976158142) {
                                                                votes[2] += 1;
                                                            }

                                                            else {
                                                                votes[0] += 1;
                                                            }
                                                        }
                                                    }

                                                    else {
                                                        votes[2] += 1;
                                                    }
                                                }

                                                else {
                                                    if (x[0] <= -1.7099999785423279) {
                                                        if (x[4] <= -2.590000092983246) {
                                                            votes[2] += 1;
                                                        }

                                                        else {
                                                            votes[0] += 1;
                                                        }
                                                    }

                                                    else {
                                                        votes[2] += 1;
                                                    }
                                                }
                                            }
                                        }
                                    }

                                    else {
                                        if (x[4] <= 1.1299999952316284) {
                                            if (x[2] <= -14.46500015258789) {
                                                votes[0] += 1;
                                            }

                                            else {
                                                votes[1] += 1;
                                            }
                                        }

                                        else {
                                            votes[0] += 1;
                                        }
                                    }
                                }
                            }

                            else {
                                if (x[1] <= 0.5550000071525574) {
                                    if (x[1] <= -1.5399999618530273) {
                                        if (x[3] <= -1.8250000476837158) {
                                            if (x[2] <= 2.4950000047683716) {
                                                votes[1] += 1;
                                            }

                                            else {
                                                if (x[0] <= 1.9550000429153442) {
                                                    if (x[5] <= -9.5) {
                                                        votes[2] += 1;
                                                    }

                                                    else {
                                                        votes[0] += 1;
                                                    }
                                                }

                                                else {
                                                    votes[2] += 1;
                                                }
                                            }
                                        }

                                        else {
                                            if (x[4] <= 1.300000011920929) {
                                                if (x[2] <= 3.0800000429153442) {
                                                    if (x[0] <= 2.590000033378601) {
                                                        if (x[1] <= -2.475000023841858) {
                                                            if (x[0] <= -1.725000023841858) {
                                                                votes[1] += 1;
                                                            }

                                                            else {
                                                                votes[2] += 1;
                                                            }
                                                        }

                                                        else {
                                                            votes[2] += 1;
                                                        }
                                                    }

                                                    else {
                                                        if (x[4] <= 0.45499999076128006) {
                                                            votes[1] += 1;
                                                        }

                                                        else {
                                                            votes[2] += 1;
                                                        }
                                                    }
                                                }

                                                else {
                                                    votes[2] += 1;
                                                }
                                            }

                                            else {
                                                if (x[3] <= 0.255000002682209) {
                                                    if (x[1] <= -3.2100000381469727) {
                                                        votes[2] += 1;
                                                    }

                                                    else {
                                                        if (x[3] <= -0.25) {
                                                            votes[2] += 1;
                                                        }

                                                        else {
                                                            if (x[3] <= 0.12000000104308128) {
                                                                votes[0] += 1;
                                                            }

                                                            else {
                                                                votes[0] += 1;
                                                            }
                                                        }
                                                    }
                                                }

                                                else {
                                                    if (x[2] <= 1.6699999570846558) {
                                                        votes[0] += 1;
                                                    }

                                                    else {
                                                        if (x[0] <= 1.3200000524520874) {
                                                            if (x[3] <= 1.4399999976158142) {
                                                                votes[2] += 1;
                                                            }

                                                            else {
                                                                votes[0] += 1;
                                                            }
                                                        }

                                                        else {
                                                            if (x[5] <= -8.234999656677246) {
                                                                votes[2] += 1;
                                                            }

                                                            else {
                                                                votes[2] += 1;
                                                            }
                                                        }
                                                    }
                                                }
                                            }
                                        }
                                    }

                                    else {
                                        if (x[3] <= -3.259999990463257) {
                                            if (x[2] <= 12.325000286102295) {
                                                votes[0] += 1;
                                            }

                                            else {
                                                votes[2] += 1;
                                            }
                                        }

                                        else {
                                            if (x[4] <= 1.7549999952316284) {
                                                if (x[3] <= 1.050000011920929) {
                                                    if (x[5] <= -8.630000114440918) {
                                                        if (x[1] <= -0.3150000125169754) {
                                                            if (x[5] <= -9.019999980926514) {
                                                                votes[0] += 1;
                                                            }

                                                            else {
                                                                votes[2] += 1;
                                                            }
                                                        }

                                                        else {
                                                            votes[2] += 1;
                                                        }
                                                    }

                                                    else {
                                                        if (x[3] <= 0.824999988079071) {
                                                            if (x[0] <= 4.369999885559082) {
                                                                votes[1] += 1;
                                                            }

                                                            else {
                                                                votes[2] += 1;
                                                            }
                                                        }

                                                        else {
                                                            if (x[5] <= -8.190000057220459) {
                                                                votes[2] += 1;
                                                            }

                                                            else {
                                                                votes[1] += 1;
                                                            }
                                                        }
                                                    }
                                                }

                                                else {
                                                    if (x[4] <= 1.2049999833106995) {
                                                        votes[2] += 1;
                                                    }

                                                    else {
                                                        if (x[0] <= 4.924999952316284) {
                                                            votes[1] += 1;
                                                        }

                                                        else {
                                                            votes[2] += 1;
                                                        }
                                                    }
                                                }
                                            }

                                            else {
                                                if (x[5] <= -8.040000200271606) {
                                                    votes[0] += 1;
                                                }

                                                else {
                                                    votes[2] += 1;
                                                }
                                            }
                                        }
                                    }
                                }

                                else {
                                    if (x[5] <= -8.234999656677246) {
                                        if (x[2] <= 12.014999866485596) {
                                            if (x[1] <= 0.6150000095367432) {
                                                if (x[5] <= -8.454999923706055) {
                                                    votes[0] += 1;
                                                }

                                                else {
                                                    if (x[2] <= 2.60999995470047) {
                                                        votes[2] += 1;
                                                    }

                                                    else {
                                                        votes[1] += 1;
                                                    }
                                                }
                                            }

                                            else {
                                                if (x[2] <= 4.394999980926514) {
                                                    if (x[1] <= 0.7800000011920929) {
                                                        if (x[0] <= 0.14000000059604645) {
                                                            votes[1] += 1;
                                                        }

                                                        else {
                                                            votes[0] += 1;
                                                        }
                                                    }

                                                    else {
                                                        votes[0] += 1;
                                                    }
                                                }

                                                else {
                                                    if (x[2] <= 4.4049999713897705) {
                                                        votes[2] += 1;
                                                    }

                                                    else {
                                                        if (x[4] <= 1.1949999928474426) {
                                                            if (x[0] <= 1.8449999690055847) {
                                                                votes[0] += 1;
                                                            }

                                                            else {
                                                                votes[2] += 1;
                                                            }
                                                        }

                                                        else {
                                                            votes[0] += 1;
                                                        }
                                                    }
                                                }
                                            }
                                        }

                                        else {
                                            votes[2] += 1;
                                        }
                                    }

                                    else {
                                        if (x[3] <= -3.559999942779541) {
                                            votes[0] += 1;
                                        }

                                        else {
                                            if (x[4] <= -0.06000000238418579) {
                                                votes[1] += 1;
                                            }

                                            else {
                                                if (x[2] <= 4.600000023841858) {
                                                    votes[0] += 1;
                                                }

                                                else {
                                                    votes[2] += 1;
                                                }
                                            }
                                        }
                                    }
                                }
                            }
                        }

                        // tree #2
                        if (x[0] <= 2.3850001096725464) {
                            if (x[3] <= -2.084999918937683) {
                                if (x[5] <= -7.934999942779541) {
                                    if (x[1] <= -9.450000286102295) {
                                        if (x[3] <= -6.650000095367432) {
                                            votes[0] += 1;
                                        }

                                        else {
                                            votes[2] += 1;
                                        }
                                    }

                                    else {
                                        if (x[0] <= -4.304999947547913) {
                                            votes[2] += 1;
                                        }

                                        else {
                                            if (x[0] <= 2.225000023841858) {
                                                if (x[2] <= 12.725000381469727) {
                                                    if (x[1] <= -5.684999942779541) {
                                                        if (x[5] <= -8.84000015258789) {
                                                            if (x[2] <= 4.244999825954437) {
                                                                votes[0] += 1;
                                                            }

                                                            else {
                                                                votes[2] += 1;
                                                            }
                                                        }

                                                        else {
                                                            votes[1] += 1;
                                                        }
                                                    }

                                                    else {
                                                        if (x[0] <= 1.475000023841858) {
                                                            if (x[2] <= 11.494999885559082) {
                                                                votes[0] += 1;
                                                            }

                                                            else {
                                                                votes[0] += 1;
                                                            }
                                                        }

                                                        else {
                                                            if (x[5] <= -8.305000305175781) {
                                                                votes[0] += 1;
                                                            }

                                                            else {
                                                                votes[1] += 1;
                                                            }
                                                        }
                                                    }
                                                }

                                                else {
                                                    votes[2] += 1;
                                                }
                                            }

                                            else {
                                                if (x[2] <= 5.574999809265137) {
                                                    if (x[0] <= 2.3149999380111694) {
                                                        if (x[0] <= 2.2649999856948853) {
                                                            votes[0] += 1;
                                                        }

                                                        else {
                                                            if (x[2] <= 3.6349998712539673) {
                                                                votes[1] += 1;
                                                            }

                                                            else {
                                                                votes[0] += 1;
                                                            }
                                                        }
                                                    }

                                                    else {
                                                        votes[0] += 1;
                                                    }
                                                }

                                                else {
                                                    votes[2] += 1;
                                                }
                                            }
                                        }
                                    }
                                }

                                else {
                                    votes[1] += 1;
                                }
                            }

                            else {
                                if (x[0] <= -0.13499999791383743) {
                                    if (x[2] <= -19.3100004196167) {
                                        if (x[5] <= -9.695000171661377) {
                                            if (x[3] <= 0.0) {
                                                if (x[1] <= 8.46999990940094) {
                                                    votes[0] += 1;
                                                }

                                                else {
                                                    votes[2] += 1;
                                                }
                                            }

                                            else {
                                                if (x[4] <= -1.4449999928474426) {
                                                    votes[2] += 1;
                                                }

                                                else {
                                                    votes[0] += 1;
                                                }
                                            }
                                        }

                                        else {
                                            if (x[1] <= 8.424999952316284) {
                                                votes[0] += 1;
                                            }

                                            else {
                                                votes[2] += 1;
                                            }
                                        }
                                    }

                                    else {
                                        if (x[1] <= 0.26999999582767487) {
                                            if (x[0] <= -2.680000066757202) {
                                                votes[2] += 1;
                                            }

                                            else {
                                                if (x[0] <= -2.6600000858306885) {
                                                    if (x[2] <= 5.039999961853027) {
                                                        votes[1] += 1;
                                                    }

                                                    else {
                                                        votes[2] += 1;
                                                    }
                                                }

                                                else {
                                                    if (x[1] <= -2.8700000047683716) {
                                                        votes[2] += 1;
                                                    }

                                                    else {
                                                        if (x[1] <= -2.834999918937683) {
                                                            votes[1] += 1;
                                                        }

                                                        else {
                                                            if (x[0] <= -2.165000081062317) {
                                                                votes[2] += 1;
                                                            }

                                                            else {
                                                                votes[2] += 1;
                                                            }
                                                        }
                                                    }
                                                }
                                            }
                                        }

                                        else {
                                            if (x[5] <= -9.369999885559082) {
                                                if (x[3] <= -0.10999995470046997) {
                                                    votes[0] += 1;
                                                }

                                                else {
                                                    votes[2] += 1;
                                                }
                                            }

                                            else {
                                                if (x[1] <= 1.050000011920929) {
                                                    if (x[2] <= -0.5199999809265137) {
                                                        votes[2] += 1;
                                                    }

                                                    else {
                                                        votes[1] += 1;
                                                    }
                                                }

                                                else {
                                                    votes[2] += 1;
                                                }
                                            }
                                        }
                                    }
                                }

                                else {
                                    if (x[1] <= -8.84499979019165) {
                                        if (x[1] <= -12.444999694824219) {
                                            if (x[3] <= 1.5300000309944153) {
                                                votes[1] += 1;
                                            }

                                            else {
                                                if (x[5] <= -8.175000190734863) {
                                                    votes[1] += 1;
                                                }

                                                else {
                                                    votes[2] += 1;
                                                }
                                            }
                                        }

                                        else {
                                            if (x[4] <= 0.12999999523162842) {
                                                if (x[3] <= 0.8900000043213367) {
                                                    votes[2] += 1;
                                                }

                                                else {
                                                    votes[1] += 1;
                                                }
                                            }

                                            else {
                                                if (x[3] <= 0.09000000357627869) {
                                                    votes[1] += 1;
                                                }

                                                else {
                                                    votes[2] += 1;
                                                }
                                            }
                                        }
                                    }

                                    else {
                                        if (x[2] <= 4.634999990463257) {
                                            if (x[4] <= 1.2949999570846558) {
                                                if (x[5] <= -8.204999923706055) {
                                                    if (x[4] <= 0.7749999761581421) {
                                                        if (x[4] <= -0.8650000095367432) {
                                                            if (x[3] <= -1.2400000095367432) {
                                                                votes[0] += 1;
                                                            }

                                                            else {
                                                                votes[2] += 1;
                                                            }
                                                        }

                                                        else {
                                                            if (x[4] <= 0.5) {
                                                                votes[0] += 1;
                                                            }

                                                            else {
                                                                votes[1] += 1;
                                                            }
                                                        }
                                                    }

                                                    else {
                                                        if (x[3] <= 0.17500000447034836) {
                                                            if (x[5] <= -8.525000095367432) {
                                                                votes[1] += 1;
                                                            }

                                                            else {
                                                                votes[2] += 1;
                                                            }
                                                        }

                                                        else {
                                                            if (x[2] <= 0.7550000250339508) {
                                                                votes[2] += 1;
                                                            }

                                                            else {
                                                                votes[2] += 1;
                                                            }
                                                        }
                                                    }
                                                }

                                                else {
                                                    if (x[3] <= -0.30000001192092896) {
                                                        votes[1] += 1;
                                                    }

                                                    else {
                                                        if (x[1] <= -4.53000009059906) {
                                                            votes[1] += 1;
                                                        }

                                                        else {
                                                            if (x[5] <= -3.875) {
                                                                votes[2] += 1;
                                                            }

                                                            else {
                                                                votes[2] += 1;
                                                            }
                                                        }
                                                    }
                                                }
                                            }

                                            else {
                                                if (x[4] <= 5.615000009536743) {
                                                    if (x[2] <= -10.294999837875366) {
                                                        if (x[0] <= 1.0550000071525574) {
                                                            votes[0] += 1;
                                                        }

                                                        else {
                                                            if (x[3] <= -0.5550000220537186) {
                                                                votes[1] += 1;
                                                            }

                                                            else {
                                                                votes[2] += 1;
                                                            }
                                                        }
                                                    }

                                                    else {
                                                        if (x[5] <= -8.135000228881836) {
                                                            if (x[0] <= 2.1750000715255737) {
                                                                votes[0] += 1;
                                                            }

                                                            else {
                                                                votes[0] += 1;
                                                            }
                                                        }

                                                        else {
                                                            votes[2] += 1;
                                                        }
                                                    }
                                                }

                                                else {
                                                    votes[2] += 1;
                                                }
                                            }
                                        }

                                        else {
                                            if (x[3] <= -1.9350000023841858) {
                                                if (x[1] <= -2.3399999141693115) {
                                                    votes[2] += 1;
                                                }

                                                else {
                                                    votes[0] += 1;
                                                }
                                            }

                                            else {
                                                if (x[5] <= -8.239999771118164) {
                                                    if (x[5] <= -8.37999963760376) {
                                                        votes[2] += 1;
                                                    }

                                                    else {
                                                        votes[0] += 1;
                                                    }
                                                }

                                                else {
                                                    votes[2] += 1;
                                                }
                                            }
                                        }
                                    }
                                }
                            }
                        }

                        else {
                            if (x[2] <= -17.864999771118164) {
                                if (x[1] <= 1.130000039935112) {
                                    if (x[5] <= -6.830000162124634) {
                                        votes[0] += 1;
                                    }

                                    else {
                                        votes[1] += 1;
                                    }
                                }

                                else {
                                    if (x[3] <= -1.9300000369548798) {
                                        votes[0] += 1;
                                    }

                                    else {
                                        votes[2] += 1;
                                    }
                                }
                            }

                            else {
                                if (x[3] <= -8.540000438690186) {
                                    votes[0] += 1;
                                }

                                else {
                                    if (x[4] <= -3.34499990940094) {
                                        if (x[3] <= -1.319999948143959) {
                                            votes[0] += 1;
                                        }

                                        else {
                                            votes[2] += 1;
                                        }
                                    }

                                    else {
                                        if (x[5] <= -10.154999732971191) {
                                            votes[0] += 1;
                                        }

                                        else {
                                            if (x[2] <= -1.0099999904632568) {
                                                if (x[3] <= -2.075000047683716) {
                                                    if (x[2] <= -3.190000057220459) {
                                                        if (x[2] <= -4.724999904632568) {
                                                            votes[1] += 1;
                                                        }

                                                        else {
                                                            if (x[5] <= -9.849999904632568) {
                                                                votes[0] += 1;
                                                            }

                                                            else {
                                                                votes[1] += 1;
                                                            }
                                                        }
                                                    }

                                                    else {
                                                        if (x[2] <= -3.1700000762939453) {
                                                            votes[0] += 1;
                                                        }

                                                        else {
                                                            if (x[4] <= -1.5699999928474426) {
                                                                votes[1] += 1;
                                                            }

                                                            else {
                                                                votes[1] += 1;
                                                            }
                                                        }
                                                    }
                                                }

                                                else {
                                                    if (x[4] <= 3.649999976158142) {
                                                        if (x[3] <= 0.38499999046325684) {
                                                            if (x[5] <= -8.489999771118164) {
                                                                votes[2] += 1;
                                                            }

                                                            else {
                                                                votes[1] += 1;
                                                            }
                                                        }

                                                        else {
                                                            if (x[0] <= 5.734999895095825) {
                                                                votes[1] += 1;
                                                            }

                                                            else {
                                                                votes[2] += 1;
                                                            }
                                                        }
                                                    }

                                                    else {
                                                        if (x[3] <= 3.1900001168251038) {
                                                            if (x[3] <= -1.6299999952316284) {
                                                                votes[2] += 1;
                                                            }

                                                            else {
                                                                votes[2] += 1;
                                                            }
                                                        }

                                                        else {
                                                            votes[0] += 1;
                                                        }
                                                    }
                                                }
                                            }

                                            else {
                                                if (x[0] <= 3.1850000619888306) {
                                                    if (x[5] <= -8.634999752044678) {
                                                        if (x[4] <= 1.925000011920929) {
                                                            if (x[1] <= -4.7799999713897705) {
                                                                votes[0] += 1;
                                                            }

                                                            else {
                                                                votes[2] += 1;
                                                            }
                                                        }

                                                        else {
                                                            votes[0] += 1;
                                                        }
                                                    }

                                                    else {
                                                        if (x[3] <= 0.0) {
                                                            if (x[1] <= 0.3999999761581421) {
                                                                votes[1] += 1;
                                                            }

                                                            else {
                                                                votes[0] += 1;
                                                            }
                                                        }

                                                        else {
                                                            if (x[5] <= -8.454999923706055) {
                                                                votes[2] += 1;
                                                            }

                                                            else {
                                                                votes[2] += 1;
                                                            }
                                                        }
                                                    }
                                                }

                                                else {
                                                    if (x[0] <= 4.679999828338623) {
                                                        if (x[5] <= -9.235000133514404) {
                                                            if (x[0] <= 4.074999928474426) {
                                                                votes[0] += 1;
                                                            }

                                                            else {
                                                                votes[2] += 1;
                                                            }
                                                        }

                                                        else {
                                                            if (x[2] <= 4.6000001430511475) {
                                                                votes[1] += 1;
                                                            }

                                                            else {
                                                                votes[2] += 1;
                                                            }
                                                        }
                                                    }

                                                    else {
                                                        votes[2] += 1;
                                                    }
                                                }
                                            }
                                        }
                                    }
                                }
                            }
                        }

                        // tree #3
                        if (x[0] <= 2.34499990940094) {
                            if (x[3] <= -2.5149999856948853) {
                                if (x[2] <= -7.375) {
                                    if (x[2] <= -17.914999961853027) {
                                        votes[0] += 1;
                                    }

                                    else {
                                        if (x[3] <= -8.164999961853027) {
                                            votes[0] += 1;
                                        }

                                        else {
                                            if (x[1] <= -5.615000009536743) {
                                                if (x[5] <= -8.990000247955322) {
                                                    votes[0] += 1;
                                                }

                                                else {
                                                    votes[1] += 1;
                                                }
                                            }

                                            else {
                                                if (x[4] <= 0.6850000023841858) {
                                                    votes[0] += 1;
                                                }

                                                else {
                                                    votes[1] += 1;
                                                }
                                            }
                                        }
                                    }
                                }

                                else {
                                    if (x[0] <= 2.200000047683716) {
                                        if (x[0] <= -5.540000081062317) {
                                            votes[2] += 1;
                                        }

                                        else {
                                            if (x[0] <= 2.034999966621399) {
                                                if (x[0] <= -1.9850000143051147) {
                                                    if (x[1] <= -3.540000081062317) {
                                                        votes[2] += 1;
                                                    }

                                                    else {
                                                        if (x[3] <= -5.049999952316284) {
                                                            votes[0] += 1;
                                                        }

                                                        else {
                                                            if (x[2] <= 10.365000247955322) {
                                                                votes[0] += 1;
                                                            }

                                                            else {
                                                                votes[2] += 1;
                                                            }
                                                        }
                                                    }
                                                }

                                                else {
                                                    votes[0] += 1;
                                                }
                                            }

                                            else {
                                                if (x[5] <= -8.634999990463257) {
                                                    votes[0] += 1;
                                                }

                                                else {
                                                    votes[1] += 1;
                                                }
                                            }
                                        }
                                    }

                                    else {
                                        if (x[4] <= 0.12000000476837158) {
                                            if (x[3] <= -5.735000133514404) {
                                                votes[0] += 1;
                                            }

                                            else {
                                                votes[1] += 1;
                                            }
                                        }

                                        else {
                                            votes[2] += 1;
                                        }
                                    }
                                }
                            }

                            else {
                                if (x[0] <= -0.13499999791383743) {
                                    if (x[3] <= 2.5299999713897705) {
                                        if (x[1] <= -0.9449999928474426) {
                                            if (x[1] <= -1.3600000143051147) {
                                                if (x[1] <= -2.8700000047683716) {
                                                    votes[2] += 1;
                                                }

                                                else {
                                                    if (x[3] <= 0.1600000038743019) {
                                                        if (x[1] <= -2.6799999475479126) {
                                                            votes[1] += 1;
                                                        }

                                                        else {
                                                            votes[2] += 1;
                                                        }
                                                    }

                                                    else {
                                                        votes[2] += 1;
                                                    }
                                                }
                                            }

                                            else {
                                                if (x[3] <= 0.6250000074505806) {
                                                    votes[0] += 1;
                                                }

                                                else {
                                                    votes[2] += 1;
                                                }
                                            }
                                        }

                                        else {
                                            if (x[3] <= -0.5250000059604645) {
                                                if (x[2] <= -14.4399995803833) {
                                                    votes[0] += 1;
                                                }

                                                else {
                                                    votes[2] += 1;
                                                }
                                            }

                                            else {
                                                if (x[2] <= 0.8199999928474426) {
                                                    if (x[1] <= 0.8850000202655792) {
                                                        if (x[1] <= 0.5949999988079071) {
                                                            if (x[0] <= -3.1350001096725464) {
                                                                votes[0] += 1;
                                                            }

                                                            else {
                                                                votes[2] += 1;
                                                            }
                                                        }

                                                        else {
                                                            if (x[2] <= -12.384999990463257) {
                                                                votes[0] += 1;
                                                            }

                                                            else {
                                                                votes[2] += 1;
                                                            }
                                                        }
                                                    }

                                                    else {
                                                        if (x[1] <= 6.269999980926514) {
                                                            if (x[4] <= -2.7300000563263893) {
                                                                votes[2] += 1;
                                                            }

                                                            else {
                                                                votes[0] += 1;
                                                            }
                                                        }

                                                        else {
                                                            votes[2] += 1;
                                                        }
                                                    }
                                                }

                                                else {
                                                    votes[1] += 1;
                                                }
                                            }
                                        }
                                    }

                                    else {
                                        if (x[1] <= -9.969999551773071) {
                                            votes[2] += 1;
                                        }

                                        else {
                                            votes[0] += 1;
                                        }
                                    }
                                }

                                else {
                                    if (x[2] <= -5.0899999141693115) {
                                        if (x[5] <= -8.675000190734863) {
                                            if (x[2] <= -19.954999923706055) {
                                                if (x[4] <= -1.9800000190734863) {
                                                    votes[2] += 1;
                                                }

                                                else {
                                                    if (x[0] <= 0.09000000264495611) {
                                                        votes[2] += 1;
                                                    }

                                                    else {
                                                        if (x[1] <= 2.8149999380111694) {
                                                            votes[0] += 1;
                                                        }

                                                        else {
                                                            votes[2] += 1;
                                                        }
                                                    }
                                                }
                                            }

                                            else {
                                                if (x[5] <= -11.244999885559082) {
                                                    votes[0] += 1;
                                                }

                                                else {
                                                    if (x[4] <= 3.325000047683716) {
                                                        votes[2] += 1;
                                                    }

                                                    else {
                                                        votes[0] += 1;
                                                    }
                                                }
                                            }
                                        }

                                        else {
                                            if (x[4] <= 4.900000095367432) {
                                                if (x[1] <= -2.355000078678131) {
                                                    if (x[4] <= 4.639999866485596) {
                                                        if (x[4] <= 4.579999923706055) {
                                                            votes[1] += 1;
                                                        }

                                                        else {
                                                            if (x[3] <= 3.234999895095825) {
                                                                votes[1] += 1;
                                                            }

                                                            else {
                                                                votes[0] += 1;
                                                            }
                                                        }
                                                    }

                                                    else {
                                                        if (x[2] <= -15.139999866485596) {
                                                            votes[0] += 1;
                                                        }

                                                        else {
                                                            votes[1] += 1;
                                                        }
                                                    }
                                                }

                                                else {
                                                    if (x[3] <= 2.305000066757202) {
                                                        votes[2] += 1;
                                                    }

                                                    else {
                                                        votes[0] += 1;
                                                    }
                                                }
                                            }

                                            else {
                                                if (x[1] <= -2.915000081062317) {
                                                    votes[0] += 1;
                                                }

                                                else {
                                                    votes[2] += 1;
                                                }
                                            }
                                        }
                                    }

                                    else {
                                        if (x[4] <= 1.2649999856948853) {
                                            if (x[4] <= 0.7749999761581421) {
                                                if (x[5] <= -8.804999828338623) {
                                                    votes[2] += 1;
                                                }

                                                else {
                                                    if (x[1] <= -0.9000000059604645) {
                                                        votes[2] += 1;
                                                    }

                                                    else {
                                                        if (x[5] <= -8.375) {
                                                            if (x[3] <= 0.21000000089406967) {
                                                                votes[1] += 1;
                                                            }

                                                            else {
                                                                votes[1] += 1;
                                                            }
                                                        }

                                                        else {
                                                            if (x[0] <= 1.399999976158142) {
                                                                votes[1] += 1;
                                                            }

                                                            else {
                                                                votes[2] += 1;
                                                            }
                                                        }
                                                    }
                                                }
                                            }

                                            else {
                                                if (x[3] <= -2.1699999570846558) {
                                                    if (x[1] <= -2.240000009536743) {
                                                        votes[2] += 1;
                                                    }

                                                    else {
                                                        votes[0] += 1;
                                                    }
                                                }

                                                else {
                                                    if (x[5] <= -8.494999885559082) {
                                                        if (x[4] <= 0.8449999988079071) {
                                                            if (x[1] <= -0.9000000357627869) {
                                                                votes[2] += 1;
                                                            }

                                                            else {
                                                                votes[1] += 1;
                                                            }
                                                        }

                                                        else {
                                                            if (x[2] <= 1.5649999976158142) {
                                                                votes[2] += 1;
                                                            }

                                                            else {
                                                                votes[2] += 1;
                                                            }
                                                        }
                                                    }

                                                    else {
                                                        if (x[5] <= -8.394999980926514) {
                                                            if (x[4] <= 1.1500000357627869) {
                                                                votes[2] += 1;
                                                            }

                                                            else {
                                                                votes[1] += 1;
                                                            }
                                                        }

                                                        else {
                                                            if (x[3] <= 0.03499999921768904) {
                                                                votes[2] += 1;
                                                            }

                                                            else {
                                                                votes[2] += 1;
                                                            }
                                                        }
                                                    }
                                                }
                                            }
                                        }

                                        else {
                                            if (x[4] <= 5.4700000286102295) {
                                                if (x[5] <= -8.135000228881836) {
                                                    if (x[2] <= 5.005000114440918) {
                                                        if (x[5] <= -8.234999656677246) {
                                                            if (x[4] <= 1.2949999570846558) {
                                                                votes[2] += 1;
                                                            }

                                                            else {
                                                                votes[0] += 1;
                                                            }
                                                        }

                                                        else {
                                                            if (x[5] <= -8.224999904632568) {
                                                                votes[2] += 1;
                                                            }

                                                            else {
                                                                votes[0] += 1;
                                                            }
                                                        }
                                                    }

                                                    else {
                                                        if (x[1] <= 0.7999999821186066) {
                                                            if (x[3] <= -0.9199999421834946) {
                                                                votes[0] += 1;
                                                            }

                                                            else {
                                                                votes[2] += 1;
                                                            }
                                                        }

                                                        else {
                                                            votes[0] += 1;
                                                        }
                                                    }
                                                }

                                                else {
                                                    votes[2] += 1;
                                                }
                                            }

                                            else {
                                                votes[2] += 1;
                                            }
                                        }
                                    }
                                }
                            }
                        }

                        else {
                            if (x[1] <= 0.08500000089406967) {
                                if (x[3] <= -8.540000438690186) {
                                    votes[0] += 1;
                                }

                                else {
                                    if (x[5] <= -10.139999866485596) {
                                        if (x[4] <= -4.894999980926514) {
                                            votes[2] += 1;
                                        }

                                        else {
                                            votes[0] += 1;
                                        }
                                    }

                                    else {
                                        if (x[4] <= -3.0600000619888306) {
                                            votes[2] += 1;
                                        }

                                        else {
                                            if (x[1] <= -2.8549998998641968) {
                                                if (x[3] <= 8.734999656677246) {
                                                    if (x[2] <= 2.375) {
                                                        if (x[1] <= -3.8950001001358032) {
                                                            if (x[2] <= 0.8050000071525574) {
                                                                votes[1] += 1;
                                                            }

                                                            else {
                                                                votes[1] += 1;
                                                            }
                                                        }

                                                        else {
                                                            if (x[5] <= -8.070000171661377) {
                                                                votes[1] += 1;
                                                            }

                                                            else {
                                                                votes[1] += 1;
                                                            }
                                                        }
                                                    }

                                                    else {
                                                        if (x[4] <= -0.1500000050291419) {
                                                            if (x[4] <= -0.8449999988079071) {
                                                                votes[0] += 1;
                                                            }

                                                            else {
                                                                votes[1] += 1;
                                                            }
                                                        }

                                                        else {
                                                            if (x[3] <= -3.359999895095825) {
                                                                votes[0] += 1;
                                                            }

                                                            else {
                                                                votes[2] += 1;
                                                            }
                                                        }
                                                    }
                                                }

                                                else {
                                                    if (x[3] <= 8.75) {
                                                        votes[0] += 1;
                                                    }

                                                    else {
                                                        votes[1] += 1;
                                                    }
                                                }
                                            }

                                            else {
                                                if (x[0] <= 3.1450001001358032) {
                                                    if (x[4] <= 0.9950000047683716) {
                                                        if (x[3] <= -0.019999999552965164) {
                                                            if (x[2] <= -10.305000007152557) {
                                                                votes[0] += 1;
                                                            }

                                                            else {
                                                                votes[1] += 1;
                                                            }
                                                        }

                                                        else {
                                                            if (x[2] <= -16.380000114440918) {
                                                                votes[0] += 1;
                                                            }

                                                            else {
                                                                votes[2] += 1;
                                                            }
                                                        }
                                                    }

                                                    else {
                                                        if (x[5] <= -8.28000020980835) {
                                                            if (x[5] <= -8.369999885559082) {
                                                                votes[1] += 1;
                                                            }

                                                            else {
                                                                votes[0] += 1;
                                                            }
                                                        }

                                                        else {
                                                            if (x[3] <= 0.23499999940395355) {
                                                                votes[1] += 1;
                                                            }

                                                            else {
                                                                votes[2] += 1;
                                                            }
                                                        }
                                                    }
                                                }

                                                else {
                                                    if (x[0] <= 5.305000066757202) {
                                                        if (x[5] <= -8.389999866485596) {
                                                            if (x[4] <= 2.7799999117851257) {
                                                                votes[2] += 1;
                                                            }

                                                            else {
                                                                votes[0] += 1;
                                                            }
                                                        }

                                                        else {
                                                            if (x[5] <= -8.255000114440918) {
                                                                votes[1] += 1;
                                                            }

                                                            else {
                                                                votes[1] += 1;
                                                            }
                                                        }
